digraph Tree {
node [shape=box, fontname="helvetica"] ;
edge [fontname="helvetica"] ;
0 [label="Heart Rate <= 101.5\ngini = 0.5\nsamples = 631\nvalue = [496, 513]"] ;
1 [label="O2 saturation pulseoxymetry <= 88.5\ngini = 0.495\nsamples = 462\nvalue = [402.0, 328.0]"] ;
0 -> 1 [labeldistance=2.5, labelangle=45, headlabel="True"] ;
3 [label="gini = 0.102\nsamples = 22\nvalue = [2, 35]"] ;
1 -> 3 ;
4 [label="Non Invasive Blood Pressure diastolic <= 46.855\ngini = 0.488\nsamples = 440\nvalue = [400.0, 293.0]"] ;
1 -> 4 ;
5 [label="Respiratory Rate <= 23.5\ngini = 0.457\nsamples = 88\nvalue = [48, 88]"] ;
4 -> 5 ;
7 [label="O2 saturation pulseoxymetry <= 93.5\ngini = 0.498\nsamples = 61\nvalue = [43, 48]"] ;
5 -> 7 ;
13 [label="gini = 0.133\nsamples = 8\nvalue = [13, 1]"] ;
7 -> 13 ;
14 [label="Respiratory Rate <= 15.5\ngini = 0.476\nsamples = 53\nvalue = [30, 47]"] ;
7 -> 14 ;
37 [label="gini = 0.476\nsamples = 17\nvalue = [14, 9]"] ;
14 -> 37 ;
38 [label="gini = 0.417\nsamples = 36\nvalue = [16, 38]"] ;
14 -> 38 ;
8 [label="Respiratory Rate <= 36.5\ngini = 0.198\nsamples = 27\nvalue = [5, 40]"] ;
5 -> 8 ;
25 [label="gini = 0.13\nsamples = 26\nvalue = [3, 40]"] ;
8 -> 25 ;
26 [label="gini = 0.0\nsamples = 1\nvalue = [2, 0]"] ;
8 -> 26 ;
6 [label="Heart Rate <= 40.0\ngini = 0.465\nsamples = 352\nvalue = [352, 205]"] ;
4 -> 6 ;
27 [label="gini = 0.0\nsamples = 1\nvalue = [0, 4]"] ;
6 -> 27 ;
28 [label="Heart Rate <= 64.5\ngini = 0.463\nsamples = 351\nvalue = [352, 201]"] ;
6 -> 28 ;
29 [label="gini = 0.316\nsamples = 34\nvalue = [45, 11]"] ;
28 -> 29 ;
30 [label="Non Invasive Blood Pressure systolic <= 117.965\ngini = 0.472\nsamples = 317\nvalue = [307, 190]"] ;
28 -> 30 ;
31 [label="Non Invasive Blood Pressure systolic <= 87.25\ngini = 0.499\nsamples = 191\nvalue = [158, 144]"] ;
30 -> 31 ;
35 [label="gini = 0.361\nsamples = 21\nvalue = [9, 29]"] ;
31 -> 35 ;
36 [label="gini = 0.492\nsamples = 170\nvalue = [149, 115]"] ;
31 -> 36 ;
32 [label="Non Invasive Blood Pressure systolic <= 186.2\ngini = 0.36\nsamples = 126\nvalue = [149, 46]"] ;
30 -> 32 ;
33 [label="gini = 0.329\nsamples = 122\nvalue = [149, 39]"] ;
32 -> 33 ;
34 [label="gini = 0.0\nsamples = 4\nvalue = [0, 7]"] ;
32 -> 34 ;
2 [label="O2 saturation pulseoxymetry <= 93.5\ngini = 0.447\nsamples = 169\nvalue = [94, 185]"] ;
0 -> 2 [labeldistance=2.5, labelangle=-45, headlabel="False"] ;
9 [label="Non Invasive Blood Pressure diastolic <= 104.0\ngini = 0.303\nsamples = 61\nvalue = [19, 83]"] ;
2 -> 9 ;
15 [label="gini = 0.259\nsamples = 60\nvalue = [15, 83]"] ;
9 -> 15 ;
16 [label="gini = 0.0\nsamples = 1\nvalue = [4, 0]"] ;
9 -> 16 ;
10 [label="Non Invasive Blood Pressure systolic <= 114.14\ngini = 0.488\nsamples = 108\nvalue = [75, 102]"] ;
2 -> 10 ;
11 [label="gini = 0.425\nsamples = 68\nvalue = [34, 77]"] ;
10 -> 11 ;
12 [label="Non Invasive Blood Pressure diastolic <= 73.5\ngini = 0.471\nsamples = 40\nvalue = [41, 25]"] ;
10 -> 12 ;
17 [label="gini = 0.211\nsamples = 14\nvalue = [22, 3]"] ;
12 -> 17 ;
18 [label="Non Invasive Blood Pressure diastolic <= 75.5\ngini = 0.497\nsamples = 26\nvalue = [19, 22]"] ;
12 -> 18 ;
19 [label="gini = 0.0\nsamples = 3\nvalue = [0, 7]"] ;
18 -> 19 ;
20 [label="Non Invasive Blood Pressure diastolic <= 104.0\ngini = 0.493\nsamples = 23\nvalue = [19, 15]"] ;
18 -> 20 ;
21 [label="O2 saturation pulseoxymetry <= 97.5\ngini = 0.436\nsamples = 19\nvalue = [19, 9]"] ;
20 -> 21 ;
23 [label="gini = 0.0\nsamples = 8\nvalue = [12, 0]"] ;
21 -> 23 ;
24 [label="gini = 0.492\nsamples = 11\nvalue = [7, 9]"] ;
21 -> 24 ;
22 [label="gini = 0.0\nsamples = 4\nvalue = [0, 6]"] ;
20 -> 22 ;
}
